<?xml version="1.0"?>
<opencv_storage>
<cascade>
  <stageType>BOOST</stageType>
  <featureType>HAAR</featureType>
  <height>24</height>
  <width>24</width>
  <stageParams>
    <boostType>GAB</boostType>
    <minHitRate>9.9500000476837158e-01</minHitRate>
    <maxFalseAlarm>5.0000000000000000e-01</maxFalseAlarm>
    <weightTrimRate>9.4999998807907104e-01</weightTrimRate>
    <maxDepth>1</maxDepth>
    <maxWeakCount>100</maxWeakCount></stageParams>
  <featureParams>
    <maxCatCount>0</maxCatCount>
    <featSize>1</featSize>
    <mode>BASIC</mode></featureParams>
  <stageNum>10</stageNum>
  <stages>
    <!-- stage 0 -->
    <_>
      <maxWeakCount>5</maxWeakCount>
      <stageThreshold>-1.5772788524627686e+00</stageThreshold>
      <weakClassifiers>
        <_>
          <internalNodes>
            0 -1 30 -5.1745334640145302e-03</internalNodes>
          <leafValues>
            3.2051283121109009e-01 -6.7196816205978394e-01</leafValues></_>
        <_>
          <internalNodes>
            0 -1 39 -5.0601556897163391e-02</internalNodes>
          <leafValues>
            5.5882036685943604e-01 -4.1334560513496399e-01</leafValues></_>
        <_>
          <internalNodes>
            0 -1 60 -2.4242073413915932e-04</internalNodes>
          <leafValues>
            4.8175030946731567e-01 -5.2344250679016113e-01</leafValues></_>
        <_>
          <internalNodes>
            0 -1 20 3.0237960163503885e-03</internalNodes>
          <leafValues>
            -5.7204329967498779e-01 3.1739160418510437e-01</leafValues></_>
        <_>
          <internalNodes>
            0 -1 22 -3.9565120823681355e-04</internalNodes>
          <leafValues>
            4.5852538943290710e-01 -4.0167209506034851e-01</leafValues></_></weakClassifiers></_>
    <!-- stage 1 -->
    <_>
      <maxWeakCount>8</maxWeakCount>
      <stageThreshold>-1.2639627456665039e+00</stageThreshold>
      <weakClassifiers>
        <_>
          <internalNodes>
            0 -1 21 2.1592829376459122e-02</internalNodes>
          <leafValues>
            -8.0916029214859009e-01 1.5988372266292572e-01</leafValues></_>
        <_>
          <internalNodes>
            0 -1 12 -2.6028240099549294e-02</internalNodes>
          <leafValues>
            5.0682818889617920e-01 -4.1767284274101257e-01</leafValues></_>
        <_>
          <internalNodes>
            0 -1 45 2.1452706307172775e-02</internalNodes>
          <leafValues>
            -3.1986296176910400e-01 6.4603793621063232e-01</leafValues></_>
        <_>
          <internalNodes>
            0 -1 41 -8.0591458827257156e-03</internalNodes>
          <leafValues>
            4.7277849912643433e-01 -3.2958176732063293e-01</leafValues></_>
        <_>
          <internalNodes>
            0 -1 66 8.0793935921974480e-05</internalNodes>
          <leafValues>
            2.4430792033672333e-01 -6.9308674335479736e-01</leafValues></_>
        <_>
          <internalNodes>
            0 -1 10 2.8453552658902481e-05</internalNodes>
          <leafValues>
            -4.0558791160583496e-01 3.7284967303276062e-01</leafValues></_>
        <_>
          <internalNodes>
            0 -1 46 -3.8732253015041351e-02</internalNodes>
          <leafValues>
            6.9774734973907471e-01 -2.3059378564357758e-01</leafValues></_>
        <_>
          <internalNodes>
            0 -1 6 7.3481714935041964e-05</internalNodes>
          <leafValues>
            3.0681961774826050e-01 -5.7660895586013794e-01</leafValues></_></weakClassifiers></_>
    <!-- stage 2 -->
    <_>
      <maxWeakCount>8</maxWeakCount>
      <stageThreshold>-1.2875971794128418e+00</stageThreshold>
      <weakClassifiers>
        <_>
          <internalNodes>
            0 -1 27 6.8069145083427429e-02</internalNodes>
          <leafValues>
            -5.8965212106704712e-01 3.8243627548217773e-01</leafValues></_>
        <_>
          <internalNodes>
            0 -1 14 8.6794272065162659e-03</internalNodes>
          <leafValues>
            -6.9201552867889404e-01 2.1034356951713562e-01</leafValues></_>
        <_>
          <internalNodes>
            0 -1 19 2.7471911162137985e-02</internalNodes>
          <leafValues>
            -3.8327923417091370e-01 4.6366256475448608e-01</leafValues></_>
        <_>
          <internalNodes>
            0 -1 62 5.1098002586513758e-04</internalNodes>
          <leafValues>
            2.0525470376014709e-01 -8.0786550045013428e-01</leafValues></_>
        <_>
          <internalNodes>
            0 -1 34 2.9787643143208697e-05</internalNodes>
          <leafValues>
            -4.4444757699966431e-01 3.5834288597106934e-01</leafValues></_>
        <_>
          <internalNodes>
            0 -1 36 -3.8587979972362518e-02</internalNodes>
          <leafValues>
            3.5005980730056763e-01 -5.0075656175613403e-01</leafValues></_>
        <_>
          <internalNodes>
            0 -1 5 -1.3138166104909033e-04</internalNodes>
          <leafValues>
            -6.8671655654907227e-01 2.4036224186420441e-01</leafValues></_>
        <_>
          <internalNodes>
            0 -1 58 -4.8418657388538122e-04</internalNodes>
          <leafValues>
            -7.6515710353851318e-01 1.9229893386363983e-01</leafValues></_></weakClassifiers></_>
    <!-- stage 3 -->
    <_>
      <maxWeakCount>6</maxWeakCount>
      <stageThreshold>-9.3530368804931641e-01</stageThreshold>
      <weakClassifiers>
        <_>
          <internalNodes>
            0 -1 51 2.8542777727125213e-05</internalNodes>
          <leafValues>
            -7.4144488573074341e-01 8.6131386458873749e-02</leafValues></_>
        <_>
          <internalNodes>
            0 -1 15 -2.8146181255578995e-02</internalNodes>
          <leafValues>
            3.5499191284179688e-01 -4.3138763308525085e-01</leafValues></_>
        <_>
          <internalNodes>
            0 -1 69 -9.1442750999704003e-04</internalNodes>
          <leafValues>
            -7.7185052633285522e-01 2.2498315572738647e-01</leafValues></_>
        <_>
          <internalNodes>
            0 -1 0 3.2624695450067520e-05</internalNodes>
          <leafValues>
            -3.9413651823997498e-01 4.1622814536094666e-01</leafValues></_>
        <_>
          <internalNodes>
            0 -1 26 6.7127749323844910e-02</internalNodes>
          <leafValues>
            -4.4603165984153748e-01 4.5225629210472107e-01</leafValues></_>
        <_>
          <internalNodes>
            0 -1 63 6.4686406403779984e-04</internalNodes>
          <leafValues>
            2.0251810550689697e-01 -8.3195364475250244e-01</leafValues></_></weakClassifiers></_>
    <!-- stage 4 -->
    <_>
      <maxWeakCount>5</maxWeakCount>
      <stageThreshold>-8.9902710914611816e-01</stageThreshold>
      <weakClassifiers>
        <_>
          <internalNodes>
            0 -1 37 7.8961864113807678e-02</internalNodes>
          <leafValues>
            -6.0885608196258545e-01 3.4358975291252136e-01</leafValues></_>
        <_>
          <internalNodes>
            0 -1 25 -3.4874569973908365e-04</internalNodes>
          <leafValues>
            -9.2246383428573608e-01 1.4477118849754333e-01</leafValues></_>
        <_>
          <internalNodes>
            0 -1 2 6.5062552690505981e-02</internalNodes>
          <leafValues>
            -3.1194907426834106e-01 6.0398107767105103e-01</leafValues></_>
        <_>
          <internalNodes>
            0 -1 25 3.3518389682285488e-04</internalNodes>
          <leafValues>
            3.0587157607078552e-01 -7.5162798166275024e-01</leafValues></_>
        <_>
          <internalNodes>
            0 -1 33 4.0315270423889160e-01</internalNodes>
          <leafValues>
            -2.8729528188705444e-01 8.3599716424942017e-01</leafValues></_></weakClassifiers></_>
    <!-- stage 5 -->
    <_>
      <maxWeakCount>8</maxWeakCount>
      <stageThreshold>-9.2027693986892700e-01</stageThreshold>
      <weakClassifiers>
        <_>
          <internalNodes>
            0 -1 31 -1.0024605691432953e-01</internalNodes>
          <leafValues>
            5.7512950897216797e-01 -4.9726775288581848e-01</leafValues></_>
        <_>
          <internalNodes>
            0 -1 11 1.2488514767028391e-04</internalNodes>
          <leafValues>
            2.1002148091793060e-01 -6.7038482427597046e-01</leafValues></_>
        <_>
          <internalNodes>
            0 -1 55 -1.3633683556690812e-04</internalNodes>
          <leafValues>
            -7.5373923778533936e-01 1.7665308713912964e-01</leafValues></_>
        <_>
          <internalNodes>
            0 -1 56 -2.5259761605411768e-04</internalNodes>
          <leafValues>
            -6.9692814350128174e-01 1.8817105889320374e-01</leafValues></_>
        <_>
          <internalNodes>
            0 -1 1 3.4856297075748444e-02</internalNodes>
          <leafValues>
            -3.0900803208351135e-01 4.4728201627731323e-01</leafValues></_>
        <_>
          <internalNodes>
            0 -1 29 1.0358025878667831e-01</internalNodes>
          <leafValues>
            -2.4658600986003876e-01 6.0297358036041260e-01</leafValues></_>
        <_>
          <internalNodes>
            0 -1 3 5.3319421567721292e-05</internalNodes>
          <leafValues>
            2.8027352690696716e-01 -5.9911644458770752e-01</leafValues></_>
        <_>
          <internalNodes>
            0 -1 8 -2.6662539312383160e-05</internalNodes>
          <leafValues>
            2.8668117523193359e-01 -4.9028223752975464e-01</leafValues></_></weakClassifiers></_>
    <!-- stage 6 -->
    <_>
      <maxWeakCount>6</maxWeakCount>
      <stageThreshold>-9.3221473693847656e-01</stageThreshold>
      <weakClassifiers>
        <_>
          <internalNodes>
            0 -1 17 1.5410908963531256e-03</internalNodes>
          <leafValues>
            -6.4814811944961548e-01 5.5737704038619995e-02</leafValues></_>
        <_>
          <internalNodes>
            0 -1 64 2.5561521761119366e-04</internalNodes>
          <leafValues>
            1.8420878052711487e-01 -6.4587342739105225e-01</leafValues></_>
        <_>
          <internalNodes>
            0 -1 65 -7.8129384201020002e-04</internalNodes>
          <leafValues>
            -8.5485601425170898e-01 1.2614843249320984e-01</leafValues></_>
        <_>
          <internalNodes>
            0 -1 68 -1.4085379370953888e-04</internalNodes>
          <leafValues>
            -6.4047056436538696e-01 1.7576865851879120e-01</leafValues></_>
        <_>
          <internalNodes>
            0 -1 57 -2.5204621488228440e-04</internalNodes>
          <leafValues>
            -6.9879037141799927e-01 1.5034906566143036e-01</leafValues></_>
        <_>
          <internalNodes>
            0 -1 18 1.2045625771861523e-04</internalNodes>
          <leafValues>
            2.0571650564670563e-01 -5.3928732872009277e-01</leafValues></_></weakClassifiers></_>
    <!-- stage 7 -->
    <_>
      <maxWeakCount>12</maxWeakCount>
      <stageThreshold>-1.6202908754348755e+00</stageThreshold>
      <weakClassifiers>
        <_>
          <internalNodes>
            0 -1 44 2.1904878318309784e-02</internalNodes>
          <leafValues>
            -5.9357279539108276e-01 2.4519230425357819e-01</leafValues></_>
        <_>
          <internalNodes>
            0 -1 42 -1.0265851765871048e-01</internalNodes>
          <leafValues>
            5.7783013582229614e-01 -3.1108298897743225e-01</leafValues></_>
        <_>
          <internalNodes>
            0 -1 52 2.7686885005095974e-05</internalNodes>
          <leafValues>
            -4.7022899985313416e-01 3.3324709534645081e-01</leafValues></_>
        <_>
          <internalNodes>
            0 -1 9 -2.8986971301492304e-05</internalNodes>
          <leafValues>
            -4.7651061415672302e-01 2.4979597330093384e-01</leafValues></_>
        <_>
          <internalNodes>
            0 -1 16 2.5037932209670544e-04</internalNodes>
          <leafValues>
            2.0612052083015442e-01 -6.3703715801239014e-01</leafValues></_>
        <_>
          <internalNodes>
            0 -1 4 7.7977812907192856e-05</internalNodes>
          <leafValues>
            1.9394010305404663e-01 -4.8322358727455139e-01</leafValues></_>
        <_>
          <internalNodes>
            0 -1 61 1.5132388216443360e-04</internalNodes>
          <leafValues>
            1.8146266043186188e-01 -5.5468785762786865e-01</leafValues></_>
        <_>
          <internalNodes>
            0 -1 34 3.0617855372838676e-05</internalNodes>
          <leafValues>
            -3.5848629474639893e-01 2.8233900666236877e-01</leafValues></_>
        <_>
          <internalNodes>
            0 -1 38 -1.2196578085422516e-01</internalNodes>
          <leafValues>
            6.7998027801513672e-01 -1.7513675987720490e-01</leafValues></_>
        <_>
          <internalNodes>
            0 -1 48 3.7427314964588732e-05</internalNodes>
          <leafValues>
            -3.5591018199920654e-01 3.3827102184295654e-01</leafValues></_>
        <_>
          <internalNodes>
            0 -1 40 -1.9294820958748460e-04</internalNodes>
          <leafValues>
            3.1939700245857239e-01 -3.2602894306182861e-01</leafValues></_>
        <_>
          <internalNodes>
            0 -1 59 -1.3961989316157997e-04</internalNodes>
          <leafValues>
            -6.0200798511505127e-01 1.7517518997192383e-01</leafValues></_></weakClassifiers></_>
    <!-- stage 8 -->
    <_>
      <maxWeakCount>7</maxWeakCount>
      <stageThreshold>-1.1827731132507324e+00</stageThreshold>
      <weakClassifiers>
        <_>
          <internalNodes>
            0 -1 32 7.0596843957901001e-02</internalNodes>
          <leafValues>
            -4.7924527525901794e-01 7.3154360055923462e-01</leafValues></_>
        <_>
          <internalNodes>
            0 -1 54 3.4922803752124310e-04</internalNodes>
          <leafValues>
            1.4749269187450409e-01 -8.3493626117706299e-01</leafValues></_>
        <_>
          <internalNodes>
            0 -1 67 -3.7430023076012731e-04</internalNodes>
          <leafValues>
            -6.8096655607223511e-01 2.1596495807170868e-01</leafValues></_>
        <_>
          <internalNodes>
            0 -1 23 4.3131323764100671e-04</internalNodes>
          <leafValues>
            1.5660288929939270e-01 -8.1709671020507813e-01</leafValues></_>
        <_>
          <internalNodes>
            0 -1 24 -2.9898778302595019e-04</internalNodes>
          <leafValues>
            -8.0676442384719849e-01 1.7176233232021332e-01</leafValues></_>
        <_>
          <internalNodes>
            0 -1 53 2.7794561901828274e-05</internalNodes>
          <leafValues>
            -4.9455788731575012e-01 2.9133152961730957e-01</leafValues></_>
        <_>
          <internalNodes>
            0 -1 70 3.0308507848531008e-04</internalNodes>
          <leafValues>
            1.3324989378452301e-01 -7.0425325632095337e-01</leafValues></_></weakClassifiers></_>
    <!-- stage 9 -->
    <_>
      <maxWeakCount>9</maxWeakCount>
      <stageThreshold>-1.1339001655578613e+00</stageThreshold>
      <weakClassifiers>
        <_>
          <internalNodes>
            0 -1 50 1.6667459160089493e-02</internalNodes>
          <leafValues>
            -5.9119498729705811e-01 7.3076926171779633e-02</leafValues></_>
        <_>
          <internalNodes>
            0 -1 43 -4.2556822299957275e-02</internalNodes>
          <leafValues>
            4.8328730463981628e-01 -2.6127201318740845e-01</leafValues></_>
        <_>
          <internalNodes>
            0 -1 47 7.6590076787397265e-05</internalNodes>
          <leafValues>
            -4.0467864274978638e-01 3.5860651731491089e-01</leafValues></_>
        <_>
          <internalNodes>
            0 -1 13 5.0531461834907532e-02</internalNodes>
          <leafValues>
            -1.5106554329395294e-01 7.8261876106262207e-01</leafValues></_>
        <_>
          <internalNodes>
            0 -1 49 3.0374294146895409e-03</internalNodes>
          <leafValues>
            1.5258242189884186e-01 -8.3353227376937866e-01</leafValues></_>
        <_>
          <internalNodes>
            0 -1 54 2.8282634957577102e-05</internalNodes>
          <leafValues>
            -2.8059616684913635e-01 3.5922461748123169e-01</leafValues></_>
        <_>
          <internalNodes>
            0 -1 35 -1.0529458522796631e-02</internalNodes>
          <leafValues>
            5.6123852729797363e-01 -2.1586926281452179e-01</leafValues></_>
        <_>
          <internalNodes>
            0 -1 7 -9.6944218967109919e-04</internalNodes>
          <leafValues>
            -8.8356488943099976e-01 1.2649805843830109e-01</leafValues></_>
        <_>
          <internalNodes>
            0 -1 28 -3.0099868774414063e-01</internalNodes>
          <leafValues>
            -9.2523252964019775e-01 9.4375342130661011e-02</leafValues></_></weakClassifiers></_></stages>
  <features>
    <_>
      <rects>
        <_>
          0 0 1 2 -1.</_>
        <_>
          0 1 1 1 2.</_></rects>
      <tilted>0</tilted></_>
    <_>
      <rects>
        <_>
          0 0 10 12 -1.</_>
        <_>
          0 4 10 4 3.</_></rects>
      <tilted>0</tilted></_>
    <_>
      <rects>
        <_>
          0 0 16 12 -1.</_>
        <_>
          0 4 16 4 3.</_></rects>
      <tilted>0</tilted></_>
    <_>
      <rects>
        <_>
          0 1 6 2 -1.</_>
        <_>
          0 1 3 1 2.</_>
        <_>
          3 2 3 1 2.</_></rects>
      <tilted>0</tilted></_>
    <_>
      <rects>
        <_>
          0 4 2 10 -1.</_>
        <_>
          0 9 2 5 2.</_></rects>
      <tilted>0</tilted></_>
    <_>
      <rects>
        <_>
          0 18 1 3 -1.</_>
        <_>
          0 19 1 1 3.</_></rects>
      <tilted>0</tilted></_>
    <_>
      <rects>
        <_>
          0 19 1 4 -1.</_>
        <_>
          0 21 1 2 2.</_></rects>
      <tilted>0</tilted></_>
    <_>
      <rects>
        <_>
          0 20 2 4 -1.</_>
        <_>
          1 20 1 4 2.</_></rects>
      <tilted>0</tilted></_>
    <_>
      <rects>
        <_>
          0 21 1 2 -1.</_>
        <_>
          0 22 1 1 2.</_></rects>
      <tilted>0</tilted></_>
    <_>
      <rects>
        <_>
          0 21 18 3 -1.</_>
        <_>
          0 22 18 1 3.</_></rects>
      <tilted>0</tilted></_>
    <_>
      <rects>
        <_>
          1 0 1 2 -1.</_>
        <_>
          1 1 1 1 2.</_></rects>
      <tilted>0</tilted></_>
    <_>
      <rects>
        <_>
          1 2 4 2 -1.</_>
        <_>
          1 2 2 1 2.</_>
        <_>
          3 3 2 1 2.</_></rects>
      <tilted>0</tilted></_>
    <_>
      <rects>
        <_>
          1 12 16 8 -1.</_>
        <_>
          1 12 8 4 2.</_>
        <_>
          9 16 8 4 2.</_></rects>
      <tilted>0</tilted></_>
    <_>
      <rects>
        <_>
          1 14 20 6 -1.</_>
        <_>
          1 16 20 2 3.</_></rects>
      <tilted>0</tilted></_>
    <_>
      <rects>
        <_>
          2 6 16 9 -1.</_>
        <_>
          10 6 8 9 2.</_></rects>
      <tilted>0</tilted></_>
    <_>
      <rects>
        <_>
          3 12 16 12 -1.</_>
        <_>
          3 12 8 6 2.</_>
        <_>
          11 18 8 6 2.</_></rects>
      <tilted>0</tilted></_>
    <_>
      <rects>
        <_>
          3 17 2 4 -1.</_>
        <_>
          4 17 1 4 2.</_></rects>
      <tilted>0</tilted></_>
    <_>
      <rects>
        <_>
          3 21 21 3 -1.</_>
        <_>
          3 22 21 1 3.</_></rects>
      <tilted>0</tilted></_>
    <_>
      <rects>
        <_>
          4 0 3 5 -1.</_>
        <_>
          5 0 1 5 3.</_></rects>
      <tilted>0</tilted></_>
    <_>
      <rects>
        <_>
          4 4 11 12 -1.</_>
        <_>
          4 8 11 4 3.</_></rects>
      <tilted>0</tilted></_>
    <_>
      <rects>
        <_>
          4 8 8 8 -1.</_>
        <_>
          8 8 4 8 2.</_></rects>
      <tilted>0</tilted></_>
    <_>
      <rects>
        <_>
          4 8 14 9 -1.</_>
        <_>
          11 8 7 9 2.</_></rects>
      <tilted>0</tilted></_>
    <_>
      <rects>
        <_>
          4 15 2 5 -1.</_>
        <_>
          5 15 1 5 2.</_></rects>
      <tilted>0</tilted></_>
    <_>
      <rects>
        <_>
          5 21 2 2 -1.</_>
        <_>
          6 21 1 2 2.</_></rects>
      <tilted>0</tilted></_>
    <_>
      <rects>
        <_>
          5 22 2 1 -1.</_>
        <_>
          6 22 1 1 2.</_></rects>
      <tilted>0</tilted></_>
    <_>
      <rects>
        <_>
          5 23 3 1 -1.</_>
        <_>
          6 23 1 1 3.</_></rects>
      <tilted>0</tilted></_>
    <_>
      <rects>
        <_>
          6 0 8 21 -1.</_>
        <_>
          6 7 8 7 3.</_></rects>
      <tilted>0</tilted></_>
    <_>
      <rects>
        <_>
          6 2 18 14 -1.</_>
        <_>
          6 2 9 7 2.</_>
        <_>
          15 9 9 7 2.</_></rects>
      <tilted>0</tilted></_>
    <_>
      <rects>
        <_>
          6 4 9 20 -1.</_>
        <_>
          6 14 9 10 2.</_></rects>
      <tilted>0</tilted></_>
    <_>
      <rects>
        <_>
          6 6 12 15 -1.</_>
        <_>
          6 11 12 5 3.</_></rects>
      <tilted>0</tilted></_>
    <_>
      <rects>
        <_>
          6 9 3 6 -1.</_>
        <_>
          6 12 3 3 2.</_></rects>
      <tilted>0</tilted></_>
    <_>
      <rects>
        <_>
          6 9 13 12 -1.</_>
        <_>
          6 13 13 4 3.</_></rects>
      <tilted>0</tilted></_>
    <_>
      <rects>
        <_>
          6 15 11 9 -1.</_>
        <_>
          6 18 11 3 3.</_></rects>
      <tilted>0</tilted></_>
    <_>
      <rects>
        <_>
          7 0 11 24 -1.</_>
        <_>
          7 8 11 8 3.</_></rects>
      <tilted>0</tilted></_>
    <_>
      <rects>
        <_>
          8 0 2 1 -1.</_>
        <_>
          9 0 1 1 2.</_></rects>
      <tilted>0</tilted></_>
    <_>
      <rects>
        <_>
          9 0 3 9 -1.</_>
        <_>
          9 3 3 3 3.</_></rects>
      <tilted>0</tilted></_>
    <_>
      <rects>
        <_>
          9 10 7 14 -1.</_>
        <_>
          9 17 7 7 2.</_></rects>
      <tilted>0</tilted></_>
    <_>
      <rects>
        <_>
          9 10 14 9 -1.</_>
        <_>
          16 10 7 9 2.</_></rects>
      <tilted>0</tilted></_>
    <_>
      <rects>
        <_>
          9 10 14 13 -1.</_>
        <_>
          16 10 7 13 2.</_></rects>
      <tilted>0</tilted></_>
    <_>
      <rects>
        <_>
          10 12 7 12 -1.</_>
        <_>
          10 18 7 6 2.</_></rects>
      <tilted>0</tilted></_>
    <_>
      <rects>
        <_>
          11 7 6 5 -1.</_>
        <_>
          13 7 2 5 3.</_></rects>
      <tilted>0</tilted></_>
    <_>
      <rects>
        <_>
          11 9 1 12 -1.</_>
        <_>
          11 15 1 6 2.</_></rects>
      <tilted>0</tilted></_>
    <_>
      <rects>
        <_>
          12 1 12 17 -1.</_>
        <_>
          18 1 6 17 2.</_></rects>
      <tilted>0</tilted></_>
    <_>
      <rects>
        <_>
          12 12 12 7 -1.</_>
        <_>
          18 12 6 7 2.</_></rects>
      <tilted>0</tilted></_>
    <_>
      <rects>
        <_>
          13 11 8 7 -1.</_>
        <_>
          17 11 4 7 2.</_></rects>
      <tilted>0</tilted></_>
    <_>
      <rects>
        <_>
          14 4 10 12 -1.</_>
        <_>
          14 4 5 6 2.</_>
        <_>
          19 10 5 6 2.</_></rects>
      <tilted>0</tilted></_>
    <_>
      <rects>
        <_>
          14 11 10 4 -1.</_>
        <_>
          19 11 5 4 2.</_></rects>
      <tilted>0</tilted></_>
    <_>
      <rects>
        <_>
          14 18 2 1 -1.</_>
        <_>
          15 18 1 1 2.</_></rects>
      <tilted>0</tilted></_>
    <_>
      <rects>
        <_>
          14 21 2 1 -1.</_>
        <_>
          15 21 1 1 2.</_></rects>
      <tilted>0</tilted></_>
    <_>
      <rects>
        <_>
          14 23 6 1 -1.</_>
        <_>
          17 23 3 1 2.</_></rects>
      <tilted>0</tilted></_>
    <_>
      <rects>
        <_>
          15 0 8 16 -1.</_>
        <_>
          15 0 4 8 2.</_>
        <_>
          19 8 4 8 2.</_></rects>
      <tilted>0</tilted></_>
    <_>
      <rects>
        <_>
          15 20 2 1 -1.</_>
        <_>
          16 20 1 1 2.</_></rects>
      <tilted>0</tilted></_>
    <_>
      <rects>
        <_>
          15 21 2 1 -1.</_>
        <_>
          16 21 1 1 2.</_></rects>
      <tilted>0</tilted></_>
    <_>
      <rects>
        <_>
          15 22 2 1 -1.</_>
        <_>
          16 22 1 1 2.</_></rects>
      <tilted>0</tilted></_>
    <_>
      <rects>
        <_>
          15 23 2 1 -1.</_>
        <_>
          16 23 1 1 2.</_></rects>
      <tilted>0</tilted></_>
    <_>
      <rects>
        <_>
          16 21 3 1 -1.</_>
        <_>
          17 21 1 1 3.</_></rects>
      <tilted>0</tilted></_>
    <_>
      <rects>
        <_>
          17 0 3 3 -1.</_>
        <_>
          18 0 1 3 3.</_></rects>
      <tilted>0</tilted></_>
    <_>
      <rects>
        <_>
          17 21 3 3 -1.</_>
        <_>
          18 21 1 3 3.</_></rects>
      <tilted>0</tilted></_>
    <_>
      <rects>
        <_>
          18 20 3 3 -1.</_>
        <_>
          18 21 3 1 3.</_></rects>
      <tilted>0</tilted></_>
    <_>
      <rects>
        <_>
          18 22 3 2 -1.</_>
        <_>
          19 22 1 2 3.</_></rects>
      <tilted>0</tilted></_>
    <_>
      <rects>
        <_>
          18 22 3 2 -1.</_>
        <_>
          18 23 3 1 2.</_></rects>
      <tilted>0</tilted></_>
    <_>
      <rects>
        <_>
          20 18 3 3 -1.</_>
        <_>
          21 18 1 3 3.</_></rects>
      <tilted>0</tilted></_>
    <_>
      <rects>
        <_>
          20 20 3 3 -1.</_>
        <_>
          21 20 1 3 3.</_></rects>
      <tilted>0</tilted></_>
    <_>
      <rects>
        <_>
          20 20 4 2 -1.</_>
        <_>
          20 21 4 1 2.</_></rects>
      <tilted>0</tilted></_>
    <_>
      <rects>
        <_>
          21 17 3 7 -1.</_>
        <_>
          22 17 1 7 3.</_></rects>
      <tilted>0</tilted></_>
    <_>
      <rects>
        <_>
          21 19 3 2 -1.</_>
        <_>
          22 19 1 2 3.</_></rects>
      <tilted>0</tilted></_>
    <_>
      <rects>
        <_>
          22 19 2 4 -1.</_>
        <_>
          22 19 1 2 2.</_>
        <_>
          23 21 1 2 2.</_></rects>
      <tilted>0</tilted></_>
    <_>
      <rects>
        <_>
          22 20 2 3 -1.</_>
        <_>
          22 21 2 1 3.</_></rects>
      <tilted>0</tilted></_>
    <_>
      <rects>
        <_>
          23 8 1 3 -1.</_>
        <_>
          23 9 1 1 3.</_></rects>
      <tilted>0</tilted></_>
    <_>
      <rects>
        <_>
          23 13 1 6 -1.</_>
        <_>
          23 15 1 2 3.</_></rects>
      <tilted>0</tilted></_>
    <_>
      <rects>
        <_>
          23 14 1 3 -1.</_>
        <_>
          23 15 1 1 3.</_></rects>
      <tilted>0</tilted></_></features></cascade>
</opencv_storage>
